<?xml version="1.0"?>
<opencv_storage>
<cascade>
  <stageType>BOOST</stageType>
  <featureType>HAAR</featureType>
  <height>24</height>
  <width>24</width>
  <stageParams>
    <boostType>GAB</boostType>
    <minHitRate>9.9900001287460327e-01</minHitRate>
    <maxFalseAlarm>4.0000000596046448e-01</maxFalseAlarm>
    <weightTrimRate>9.4999999999999996e-01</weightTrimRate>
    <maxDepth>1</maxDepth>
    <maxWeakCount>100</maxWeakCount></stageParams>
  <featureParams>
    <maxCatCount>0</maxCatCount>
    <featSize>1</featSize>
    <mode>BASIC</mode></featureParams>
  <stageNum>12</stageNum>
  <stages>
    <!-- stage 0 -->
    <_>
      <maxWeakCount>7</maxWeakCount>
      <stageThreshold>-2.2251665592193604e+00</stageThreshold>
      <weakClassifiers>
        <_>
          <internalNodes>
            0 -1 83 -4.3019875884056091e-02</internalNodes>
          <leafValues>
            7.5268819928169250e-02 -8.9142239093780518e-01</leafValues></_>
        <_>
          <internalNodes>
            0 -1 89 -3.6610284587368369e-04</internalNodes>
          <leafValues>
            5.1771286875009537e-02 -9.4039094448089600e-01</leafValues></_>
        <_>
          <internalNodes>
            0 -1 127 -4.0328031900571659e-05</internalNodes>
          <leafValues>
            1.8420322239398956e-01 -7.9275548458099365e-01</leafValues></_>
        <_>
          <internalNodes>
            0 -1 119 -1.8363900016993284e-04</internalNodes>
          <leafValues>
            2.6775246858596802e-01 -7.3753428459167480e-01</leafValues></_>
        <_>
          <internalNodes>
            0 -1 4 1.2996669113636017e-01</internalNodes>
          <leafValues>
            -3.3537754416465759e-01 6.6871780157089233e-01</leafValues></_>
        <_>
          <internalNodes>
            0 -1 123 -4.3492033000802621e-05</internalNodes>
          <leafValues>
            2.9297360777854919e-01 -7.0291924476623535e-01</leafValues></_>
        <_>
          <internalNodes>
            0 -1 120 5.0170601753052324e-05</internalNodes>
          <leafValues>
            1.7778426408767700e-01 -9.2398852109909058e-01</leafValues></_></weakClassifiers></_>
    <!-- stage 1 -->
    <_>
      <maxWeakCount>7</maxWeakCount>
      <stageThreshold>-1.5216603279113770e+00</stageThreshold>
      <weakClassifiers>
        <_>
          <internalNodes>
            0 -1 80 6.7740760743618011e-02</internalNodes>
          <leafValues>
            -8.7168139219284058e-01 -4.0540538728237152e-02</leafValues></_>
        <_>
          <internalNodes>
            0 -1 105 -3.6586266010999680e-02</internalNodes>
          <leafValues>
            3.8379541039466858e-01 -5.4723942279815674e-01</leafValues></_>
        <_>
          <internalNodes>
            0 -1 92 -1.0637439787387848e-02</internalNodes>
          <leafValues>
            -9.7654569149017334e-01 1.6305685043334961e-01</leafValues></_>
        <_>
          <internalNodes>
            0 -1 93 9.4804540276527405e-04</internalNodes>
          <leafValues>
            -4.0632632374763489e-01 4.7378247976303101e-01</leafValues></_>
        <_>
          <internalNodes>
            0 -1 20 2.7085808105766773e-03</internalNodes>
          <leafValues>
            -2.5040644407272339e-01 6.5598046779632568e-01</leafValues></_>
        <_>
          <internalNodes>
            0 -1 118 -2.0810466958209872e-04</internalNodes>
          <leafValues>
            3.8106426596641541e-01 -4.1915872693061829e-01</leafValues></_>
        <_>
          <internalNodes>
            0 -1 111 -8.1839323684107512e-05</internalNodes>
          <leafValues>
            1.4052881300449371e-01 -8.7023657560348511e-01</leafValues></_></weakClassifiers></_>
    <!-- stage 2 -->
    <_>
      <maxWeakCount>9</maxWeakCount>
      <stageThreshold>-1.5310965776443481e+00</stageThreshold>
      <weakClassifiers>
        <_>
          <internalNodes>
            0 -1 60 4.3924339115619659e-02</internalNodes>
          <leafValues>
            -8.1954884529113770e-01 -1.3754646480083466e-01</leafValues></_>
        <_>
          <internalNodes>
            0 -1 102 4.1638100810814649e-05</internalNodes>
          <leafValues>
            7.0894944656174630e-05 -9.0944790840148926e-01</leafValues></_>
        <_>
          <internalNodes>
            0 -1 30 -9.4915524823591113e-04</internalNodes>
          <leafValues>
            -8.3820074796676636e-01 1.5566612780094147e-01</leafValues></_>
        <_>
          <internalNodes>
            0 -1 74 -3.3595614135265350e-02</internalNodes>
          <leafValues>
            -7.8243619203567505e-01 1.6934128105640411e-01</leafValues></_>
        <_>
          <internalNodes>
            0 -1 69 1.0758888721466064e-01</internalNodes>
          <leafValues>
            -2.4073433876037598e-01 6.5685212612152100e-01</leafValues></_>
        <_>
          <internalNodes>
            0 -1 6 -3.7887737154960632e-02</internalNodes>
          <leafValues>
            6.2965792417526245e-01 -2.3773905634880066e-01</leafValues></_>
        <_>
          <internalNodes>
            0 -1 0 -1.8591809202916920e-04</internalNodes>
          <leafValues>
            -7.2852843999862671e-01 2.1067708730697632e-01</leafValues></_>
        <_>
          <internalNodes>
            0 -1 90 -4.5675522414967418e-05</internalNodes>
          <leafValues>
            1.7119130492210388e-01 -7.2076827287673950e-01</leafValues></_>
        <_>
          <internalNodes>
            0 -1 36 -6.4084760379046202e-04</internalNodes>
          <leafValues>
            -8.6821246147155762e-01 1.2198649346828461e-01</leafValues></_></weakClassifiers></_>
    <!-- stage 3 -->
    <_>
      <maxWeakCount>12</maxWeakCount>
      <stageThreshold>-1.6917705535888672e+00</stageThreshold>
      <weakClassifiers>
        <_>
          <internalNodes>
            0 -1 106 4.8863276839256287e-02</internalNodes>
          <leafValues>
            -7.4864375591278076e-01 2.9787233471870422e-01</leafValues></_>
        <_>
          <internalNodes>
            0 -1 68 1.2711923569440842e-02</internalNodes>
          <leafValues>
            -4.9917966127395630e-01 3.3994993567466736e-01</leafValues></_>
        <_>
          <internalNodes>
            0 -1 62 -1.3403207412920892e-04</internalNodes>
          <leafValues>
            2.6605385541915894e-01 -4.9151799082756042e-01</leafValues></_>
        <_>
          <internalNodes>
            0 -1 53 -6.2971219420433044e-02</internalNodes>
          <leafValues>
            5.5873638391494751e-01 -2.4699522554874420e-01</leafValues></_>
        <_>
          <internalNodes>
            0 -1 16 -2.0759258419275284e-02</internalNodes>
          <leafValues>
            5.1008963584899902e-01 -2.8155988454818726e-01</leafValues></_>
        <_>
          <internalNodes>
            0 -1 133 1.6596422938164324e-05</internalNodes>
          <leafValues>
            1.8976895511150360e-01 -8.8751810789108276e-01</leafValues></_>
        <_>
          <internalNodes>
            0 -1 1 3.1061829067766666e-03</internalNodes>
          <leafValues>
            1.2062095105648041e-01 -6.8441891670227051e-01</leafValues></_>
        <_>
          <internalNodes>
            0 -1 73 -1.4503579586744308e-04</internalNodes>
          <leafValues>
            2.7297800779342651e-01 -4.0560469031333923e-01</leafValues></_>
        <_>
          <internalNodes>
            0 -1 149 -4.8264471115544438e-04</internalNodes>
          <leafValues>
            -6.6181749105453491e-01 1.9064873456954956e-01</leafValues></_>
        <_>
          <internalNodes>
            0 -1 17 8.4289368242025375e-03</internalNodes>
          <leafValues>
            -1.6671930253505707e-01 8.1441378593444824e-01</leafValues></_>
        <_>
          <internalNodes>
            0 -1 151 1.0838608257472515e-02</internalNodes>
          <leafValues>
            -1.8442334234714508e-01 5.9700644016265869e-01</leafValues></_>
        <_>
          <internalNodes>
            0 -1 160 1.3832524418830872e-03</internalNodes>
          <leafValues>
            2.0072002708911896e-01 -6.8490374088287354e-01</leafValues></_></weakClassifiers></_>
    <!-- stage 4 -->
    <_>
      <maxWeakCount>13</maxWeakCount>
      <stageThreshold>-1.5887386798858643e+00</stageThreshold>
      <weakClassifiers>
        <_>
          <internalNodes>
            0 -1 33 -3.3483143895864487e-02</internalNodes>
          <leafValues>
            -5.1282051950693130e-02 -8.1573498249053955e-01</leafValues></_>
        <_>
          <internalNodes>
            0 -1 130 2.4543093517422676e-02</internalNodes>
          <leafValues>
            -5.4797792434692383e-01 3.3150520920753479e-01</leafValues></_>
        <_>
          <internalNodes>
            0 -1 96 -7.8381262719631195e-03</internalNodes>
          <leafValues>
            5.1551812887191772e-01 -3.0497416853904724e-01</leafValues></_>
        <_>
          <internalNodes>
            0 -1 95 1.8681653309613466e-03</internalNodes>
          <leafValues>
            -2.8691616654396057e-01 5.3786420822143555e-01</leafValues></_>
        <_>
          <internalNodes>
            0 -1 143 -1.2617980828508735e-03</internalNodes>
          <leafValues>
            5.1924026012420654e-01 -2.3143106698989868e-01</leafValues></_>
        <_>
          <internalNodes>
            0 -1 3 -5.8401477336883545e-01</internalNodes>
          <leafValues>
            -8.7526667118072510e-01 1.3496002554893494e-01</leafValues></_>
        <_>
          <internalNodes>
            0 -1 87 -6.9973684730939567e-05</internalNodes>
          <leafValues>
            2.0072406530380249e-01 -6.1894267797470093e-01</leafValues></_>
        <_>
          <internalNodes>
            0 -1 82 -1.9531788711901754e-04</internalNodes>
          <leafValues>
            3.4359899163246155e-01 -3.5877025127410889e-01</leafValues></_>
        <_>
          <internalNodes>
            0 -1 41 5.4999776184558868e-03</internalNodes>
          <leafValues>
            -2.3925039172172546e-01 5.1896822452545166e-01</leafValues></_>
        <_>
          <internalNodes>
            0 -1 113 -2.3226493794936687e-04</internalNodes>
          <leafValues>
            3.5976803302764893e-01 -3.5751006007194519e-01</leafValues></_>
        <_>
          <internalNodes>
            0 -1 136 -3.6085097235627472e-05</internalNodes>
          <leafValues>
            2.0107448101043701e-01 -5.2576154470443726e-01</leafValues></_>
        <_>
          <internalNodes>
            0 -1 67 2.1269078552722931e-01</internalNodes>
          <leafValues>
            -1.7156241834163666e-01 6.4718514680862427e-01</leafValues></_>
        <_>
          <internalNodes>
            0 -1 81 -1.3513521989807487e-03</internalNodes>
          <leafValues>
            4.8543545603752136e-01 -2.6764494180679321e-01</leafValues></_></weakClassifiers></_>
    <!-- stage 5 -->
    <_>
      <maxWeakCount>20</maxWeakCount>
      <stageThreshold>-1.8473137617111206e+00</stageThreshold>
      <weakClassifiers>
        <_>
          <internalNodes>
            0 -1 19 -1.0637389495968819e-02</internalNodes>
          <leafValues>
            2.1428571641445160e-01 -7.3297488689422607e-01</leafValues></_>
        <_>
          <internalNodes>
            0 -1 79 1.1261511594057083e-02</internalNodes>
          <leafValues>
            -4.6670600771903992e-01 1.7911748588085175e-01</leafValues></_>
        <_>
          <internalNodes>
            0 -1 86 -4.0180297219194472e-05</internalNodes>
          <leafValues>
            1.4872378110885620e-01 -6.5139901638031006e-01</leafValues></_>
        <_>
          <internalNodes>
            0 -1 24 -1.2943282723426819e-01</internalNodes>
          <leafValues>
            6.4059334993362427e-01 -1.4711913466453552e-01</leafValues></_>
        <_>
          <internalNodes>
            0 -1 131 -8.2272294093854725e-05</internalNodes>
          <leafValues>
            2.4371182918548584e-01 -4.5757731795310974e-01</leafValues></_>
        <_>
          <internalNodes>
            0 -1 148 -3.3524273894727230e-03</internalNodes>
          <leafValues>
            -5.0696122646331787e-01 1.7329859733581543e-01</leafValues></_>
        <_>
          <internalNodes>
            0 -1 121 7.0707552367821336e-05</internalNodes>
          <leafValues>
            1.3719679415225983e-01 -7.4921107292175293e-01</leafValues></_>
        <_>
          <internalNodes>
            0 -1 116 -1.7469897866249084e-02</internalNodes>
          <leafValues>
            3.2149845361709595e-01 -3.0521297454833984e-01</leafValues></_>
        <_>
          <internalNodes>
            0 -1 11 -1.4773948350921273e-03</internalNodes>
          <leafValues>
            7.2944313287734985e-01 -1.2928843498229980e-01</leafValues></_>
        <_>
          <internalNodes>
            0 -1 153 -2.4696756154298782e-03</internalNodes>
          <leafValues>
            -5.0492173433303833e-01 2.0045046508312225e-01</leafValues></_>
        <_>
          <internalNodes>
            0 -1 146 1.2944690883159637e-02</internalNodes>
          <leafValues>
            -2.2477512061595917e-01 5.3427064418792725e-01</leafValues></_>
        <_>
          <internalNodes>
            0 -1 158 -1.1355044553056359e-03</internalNodes>
          <leafValues>
            6.5022128820419312e-01 -1.6965374350547791e-01</leafValues></_>
        <_>
          <internalNodes>
            0 -1 85 -1.1591762304306030e-03</internalNodes>
          <leafValues>
            -6.1360508203506470e-01 1.7847731709480286e-01</leafValues></_>
        <_>
          <internalNodes>
            0 -1 72 5.6395068531855941e-04</internalNodes>
          <leafValues>
            -2.6462793350219727e-01 3.5390001535415649e-01</leafValues></_>
        <_>
          <internalNodes>
            0 -1 45 -5.0824671983718872e-02</internalNodes>
          <leafValues>
            5.7094228267669678e-01 -1.6537372767925262e-01</leafValues></_>
        <_>
          <internalNodes>
            0 -1 51 2.6135897496715188e-04</internalNodes>
          <leafValues>
            2.0590397715568542e-01 -5.4842239618301392e-01</leafValues></_>
        <_>
          <internalNodes>
            0 -1 5 1.1025974527001381e-02</internalNodes>
          <leafValues>
            -2.6525324583053589e-01 4.0959519147872925e-01</leafValues></_>
        <_>
          <internalNodes>
            0 -1 47 -1.2103190645575523e-02</internalNodes>
          <leafValues>
            5.4160064458847046e-01 -1.8357558548450470e-01</leafValues></_>
        <_>
          <internalNodes>
            0 -1 132 -9.4030270702205598e-05</internalNodes>
          <leafValues>
            2.1293123066425323e-01 -4.9070143699645996e-01</leafValues></_>
        <_>
          <internalNodes>
            0 -1 124 -2.5828689103946090e-04</internalNodes>
          <leafValues>
            4.0482324361801147e-01 -2.9007586836814880e-01</leafValues></_></weakClassifiers></_>
    <!-- stage 6 -->
    <_>
      <maxWeakCount>14</maxWeakCount>
      <stageThreshold>-1.5169693231582642e+00</stageThreshold>
      <weakClassifiers>
        <_>
          <internalNodes>
            0 -1 12 -4.1333682835102081e-02</internalNodes>
          <leafValues>
            3.4482759237289429e-01 -7.1803849935531616e-01</leafValues></_>
        <_>
          <internalNodes>
            0 -1 14 -1.0574607178568840e-02</internalNodes>
          <leafValues>
            7.6534777879714966e-01 -2.6526072621345520e-01</leafValues></_>
        <_>
          <internalNodes>
            0 -1 161 1.7214583931490779e-03</internalNodes>
          <leafValues>
            -3.5705396533012390e-01 2.6601472496986389e-01</leafValues></_>
        <_>
          <internalNodes>
            0 -1 49 -2.0284698903560638e-01</internalNodes>
          <leafValues>
            4.8954072594642639e-01 -1.9646473228931427e-01</leafValues></_>
        <_>
          <internalNodes>
            0 -1 126 -4.0063801861833781e-05</internalNodes>
          <leafValues>
            1.3245865702629089e-01 -7.2753775119781494e-01</leafValues></_>
        <_>
          <internalNodes>
            0 -1 104 -1.3010960537940264e-03</internalNodes>
          <leafValues>
            -7.7527707815170288e-01 1.6308224201202393e-01</leafValues></_>
        <_>
          <internalNodes>
            0 -1 52 1.8533057300373912e-04</internalNodes>
          <leafValues>
            1.1313978582620621e-01 -5.9874749183654785e-01</leafValues></_>
        <_>
          <internalNodes>
            0 -1 122 -4.3757610023021698e-02</internalNodes>
          <leafValues>
            4.9744993448257446e-01 -1.9547858834266663e-01</leafValues></_>
        <_>
          <internalNodes>
            0 -1 57 -8.5466787219047546e-02</internalNodes>
          <leafValues>
            8.4063166379928589e-01 -1.1224726587533951e-01</leafValues></_>
        <_>
          <internalNodes>
            0 -1 27 -6.8050087429583073e-03</internalNodes>
          <leafValues>
            -5.4448533058166504e-01 1.9496361911296844e-01</leafValues></_>
        <_>
          <internalNodes>
            0 -1 15 1.8863048404455185e-02</internalNodes>
          <leafValues>
            -1.1196281760931015e-01 8.4147655963897705e-01</leafValues></_>
        <_>
          <internalNodes>
            0 -1 46 -2.6360165793448687e-04</internalNodes>
          <leafValues>
            2.9141387343406677e-01 -3.1208720803260803e-01</leafValues></_>
        <_>
          <internalNodes>
            0 -1 31 -8.8549531996250153e-02</internalNodes>
          <leafValues>
            -8.7736147642135620e-01 1.2160738557577133e-01</leafValues></_>
        <_>
          <internalNodes>
            0 -1 44 1.1211362434551120e-03</internalNodes>
          <leafValues>
            1.1519144475460052e-01 -6.0813111066818237e-01</leafValues></_></weakClassifiers></_>
    <!-- stage 7 -->
    <_>
      <maxWeakCount>16</maxWeakCount>
      <stageThreshold>-1.6386142969131470e+00</stageThreshold>
      <weakClassifiers>
        <_>
          <internalNodes>
            0 -1 150 -6.3785370439291000e-03</internalNodes>
          <leafValues>
            4.9504950642585754e-02 -7.3248410224914551e-01</leafValues></_>
        <_>
          <internalNodes>
            0 -1 139 -3.8019833154976368e-03</internalNodes>
          <leafValues>
            2.1147932112216949e-01 -4.0119835734367371e-01</leafValues></_>
        <_>
          <internalNodes>
            0 -1 35 -3.0541745945811272e-03</internalNodes>
          <leafValues>
            -5.0038516521453857e-01 1.5625742077827454e-01</leafValues></_>
        <_>
          <internalNodes>
            0 -1 48 -1.3896705582737923e-02</internalNodes>
          <leafValues>
            3.7452840805053711e-01 -2.4664625525474548e-01</leafValues></_>
        <_>
          <internalNodes>
            0 -1 75 -2.2697545588016510e-02</internalNodes>
          <leafValues>
            7.2007042169570923e-01 -1.1514332145452499e-01</leafValues></_>
        <_>
          <internalNodes>
            0 -1 88 -4.5103959564585239e-05</internalNodes>
          <leafValues>
            1.1196597665548325e-01 -1.</leafValues></_>
        <_>
          <internalNodes>
            0 -1 137 -3.5804245271719992e-05</internalNodes>
          <leafValues>
            1.3253307342529297e-01 -5.7958406209945679e-01</leafValues></_>
        <_>
          <internalNodes>
            0 -1 50 2.2220166865736246e-03</internalNodes>
          <leafValues>
            -1.9982309639453888e-01 5.0317853689193726e-01</leafValues></_>
        <_>
          <internalNodes>
            0 -1 42 -1.1974480003118515e-02</internalNodes>
          <leafValues>
            4.3101081252098083e-01 -2.1459709107875824e-01</leafValues></_>
        <_>
          <internalNodes>
            0 -1 59 -3.1404676847159863e-03</internalNodes>
          <leafValues>
            -4.7018358111381531e-01 1.9725154340267181e-01</leafValues></_>
        <_>
          <internalNodes>
            0 -1 128 1.4173554955050349e-03</internalNodes>
          <leafValues>
            -3.9351049065589905e-01 2.1626414358615875e-01</leafValues></_>
        <_>
          <internalNodes>
            0 -1 142 -1.9380272715352476e-04</internalNodes>
          <leafValues>
            3.1382209062576294e-01 -3.1436330080032349e-01</leafValues></_>
        <_>
          <internalNodes>
            0 -1 76 2.9140026308596134e-03</internalNodes>
          <leafValues>
            2.3184061050415039e-01 -3.6385557055473328e-01</leafValues></_>
        <_>
          <internalNodes>
            0 -1 114 2.5118668563663960e-03</internalNodes>
          <leafValues>
            -1.8758471310138702e-01 4.7579324245452881e-01</leafValues></_>
        <_>
          <internalNodes>
            0 -1 147 -3.1030521495267749e-04</internalNodes>
          <leafValues>
            -4.0650531649589539e-01 2.0496763288974762e-01</leafValues></_>
        <_>
          <internalNodes>
            0 -1 65 -1.7832650337368250e-03</internalNodes>
          <leafValues>
            8.9729174971580505e-02 -8.1837224960327148e-01</leafValues></_></weakClassifiers></_>
    <!-- stage 8 -->
    <_>
      <maxWeakCount>14</maxWeakCount>
      <stageThreshold>-1.4586688280105591e+00</stageThreshold>
      <weakClassifiers>
        <_>
          <internalNodes>
            0 -1 107 8.0822393298149109e-02</internalNodes>
          <leafValues>
            -7.2968035936355591e-01 -9.5238098874688148e-03</leafValues></_>
        <_>
          <internalNodes>
            0 -1 18 -2.1369596943259239e-03</internalNodes>
          <leafValues>
            2.9120936989784241e-01 -3.2207396626472473e-01</leafValues></_>
        <_>
          <internalNodes>
            0 -1 38 1.0607053991407156e-03</internalNodes>
          <leafValues>
            1.2915794551372528e-01 -5.7528185844421387e-01</leafValues></_>
        <_>
          <internalNodes>
            0 -1 21 8.7569104507565498e-03</internalNodes>
          <leafValues>
            -1.5398199856281281e-01 5.3817921876907349e-01</leafValues></_>
        <_>
          <internalNodes>
            0 -1 162 -1.3733305968344212e-03</internalNodes>
          <leafValues>
            -5.0911802053451538e-01 1.9718788564205170e-01</leafValues></_>
        <_>
          <internalNodes>
            0 -1 64 -2.6089028688147664e-04</internalNodes>
          <leafValues>
            2.0998834073543549e-01 -3.4537962079048157e-01</leafValues></_>
        <_>
          <internalNodes>
            0 -1 100 -9.1068411711603403e-04</internalNodes>
          <leafValues>
            4.7378602623939514e-01 -1.9312979280948639e-01</leafValues></_>
        <_>
          <internalNodes>
            0 -1 129 -1.3722449075430632e-03</internalNodes>
          <leafValues>
            3.0400606989860535e-01 -3.2834127545356750e-01</leafValues></_>
        <_>
          <internalNodes>
            0 -1 112 3.9099674904718995e-04</internalNodes>
          <leafValues>
            1.8091022968292236e-01 -5.3345829248428345e-01</leafValues></_>
        <_>
          <internalNodes>
            0 -1 63 1.4460911042988300e-02</internalNodes>
          <leafValues>
            -4.1043764352798462e-01 2.0718938112258911e-01</leafValues></_>
        <_>
          <internalNodes>
            0 -1 134 -2.3997118696570396e-03</internalNodes>
          <leafValues>
            -6.1762374639511108e-01 1.2016372382640839e-01</leafValues></_>
        <_>
          <internalNodes>
            0 -1 2 -1.4330767095088959e-02</internalNodes>
          <leafValues>
            2.1881969273090363e-01 -4.0556961297988892e-01</leafValues></_>
        <_>
          <internalNodes>
            0 -1 94 -8.7404518853873014e-04</internalNodes>
          <leafValues>
            3.2740390300750732e-01 -2.5127288699150085e-01</leafValues></_>
        <_>
          <internalNodes>
            0 -1 99 -5.4007018916308880e-03</internalNodes>
          <leafValues>
            5.2560877799987793e-01 -1.6850522160530090e-01</leafValues></_></weakClassifiers></_>
    <!-- stage 9 -->
    <_>
      <maxWeakCount>21</maxWeakCount>
      <stageThreshold>-1.4988418817520142e+00</stageThreshold>
      <weakClassifiers>
        <_>
          <internalNodes>
            0 -1 23 -5.0064376555383205e-03</internalNodes>
          <leafValues>
            -9.3333333730697632e-02 -7.4857145547866821e-01</leafValues></_>
        <_>
          <internalNodes>
            0 -1 84 -3.7462406908161938e-04</internalNodes>
          <leafValues>
            4.8271149396896362e-02 -5.4129576683044434e-01</leafValues></_>
        <_>
          <internalNodes>
            0 -1 140 -1.9334361422806978e-03</internalNodes>
          <leafValues>
            4.9321407079696655e-01 -1.8146842718124390e-01</leafValues></_>
        <_>
          <internalNodes>
            0 -1 157 3.2783506903797388e-03</internalNodes>
          <leafValues>
            1.3638885319232941e-01 -6.0788559913635254e-01</leafValues></_>
        <_>
          <internalNodes>
            0 -1 28 -2.8023074846714735e-03</internalNodes>
          <leafValues>
            -6.2252533435821533e-01 1.5797080099582672e-01</leafValues></_>
        <_>
          <internalNodes>
            0 -1 152 2.5935661979019642e-03</internalNodes>
          <leafValues>
            -1.5933485329151154e-01 5.3629213571548462e-01</leafValues></_>
        <_>
          <internalNodes>
            0 -1 109 2.0956643857061863e-04</internalNodes>
          <leafValues>
            8.9598044753074646e-02 -8.9484798908233643e-01</leafValues></_>
        <_>
          <internalNodes>
            0 -1 13 -8.6987754330039024e-03</internalNodes>
          <leafValues>
            8.0390769243240356e-01 -9.8348803818225861e-02</leafValues></_>
        <_>
          <internalNodes>
            0 -1 135 -5.9552984312176704e-03</internalNodes>
          <leafValues>
            2.7180534601211548e-01 -3.0085203051567078e-01</leafValues></_>
        <_>
          <internalNodes>
            0 -1 40 -4.2074063094332814e-04</internalNodes>
          <leafValues>
            -3.6618861556053162e-01 2.1481664478778839e-01</leafValues></_>
        <_>
          <internalNodes>
            0 -1 34 2.0467401482164860e-03</internalNodes>
          <leafValues>
            8.9990139007568359e-02 -8.6304652690887451e-01</leafValues></_>
        <_>
          <internalNodes>
            0 -1 10 -8.4627568721771240e-03</internalNodes>
          <leafValues>
            5.8179163932800293e-01 -1.5925012528896332e-01</leafValues></_>
        <_>
          <internalNodes>
            0 -1 91 -2.0572080393321812e-04</internalNodes>
          <leafValues>
            2.4223561584949493e-01 -3.0579864978790283e-01</leafValues></_>
        <_>
          <internalNodes>
            0 -1 54 -3.3742462983354926e-04</internalNodes>
          <leafValues>
            -5.4028135538101196e-01 1.4280463755130768e-01</leafValues></_>
        <_>
          <internalNodes>
            0 -1 43 1.5375782968476415e-03</internalNodes>
          <leafValues>
            -2.3724699020385742e-01 3.5967943072319031e-01</leafValues></_>
        <_>
          <internalNodes>
            0 -1 155 -1.0871457634493709e-03</internalNodes>
          <leafValues>
            -4.0479478240013123e-01 2.0520707964897156e-01</leafValues></_>
        <_>
          <internalNodes>
            0 -1 70 1.7495687352493405e-03</internalNodes>
          <leafValues>
            -3.5451930761337280e-01 2.1163932979106903e-01</leafValues></_>
        <_>
          <internalNodes>
            0 -1 101 9.9499826319515705e-04</internalNodes>
          <leafValues>
            1.0652129352092743e-01 -7.4302446842193604e-01</leafValues></_>
        <_>
          <internalNodes>
            0 -1 77 -3.3139523584395647e-03</internalNodes>
          <leafValues>
            6.7574089765548706e-01 -1.3351063430309296e-01</leafValues></_>
        <_>
          <internalNodes>
            0 -1 156 2.3245927877724171e-03</internalNodes>
          <leafValues>
            1.4069396257400513e-01 -6.0640609264373779e-01</leafValues></_>
        <_>
          <internalNodes>
            0 -1 97 2.4841966107487679e-02</internalNodes>
          <leafValues>
            -1.2879502773284912e-01 6.0971742868423462e-01</leafValues></_></weakClassifiers></_>
    <!-- stage 10 -->
    <_>
      <maxWeakCount>15</maxWeakCount>
      <stageThreshold>-1.4089400768280029e+00</stageThreshold>
      <weakClassifiers>
        <_>
          <internalNodes>
            0 -1 141 2.6620086282491684e-03</internalNodes>
          <leafValues>
            -7.2252249717712402e-01 2.2222222760319710e-02</leafValues></_>
        <_>
          <internalNodes>
            0 -1 127 -1.1813662422355264e-04</internalNodes>
          <leafValues>
            1.7863035202026367e-02 -5.8400458097457886e-01</leafValues></_>
        <_>
          <internalNodes>
            0 -1 98 -4.3151978752575815e-04</internalNodes>
          <leafValues>
            -3.7743446230888367e-01 1.5930780768394470e-01</leafValues></_>
        <_>
          <internalNodes>
            0 -1 32 -7.3232382535934448e-02</internalNodes>
          <leafValues>
            -8.5546118021011353e-01 1.0857117176055908e-01</leafValues></_>
        <_>
          <internalNodes>
            0 -1 22 -3.8891332224011421e-03</internalNodes>
          <leafValues>
            6.2987947463989258e-01 -1.4578992128372192e-01</leafValues></_>
        <_>
          <internalNodes>
            0 -1 56 -9.9008921533823013e-03</internalNodes>
          <leafValues>
            1.1172349750995636e-01 -9.2509567737579346e-01</leafValues></_>
        <_>
          <internalNodes>
            0 -1 154 4.8887588083744049e-02</internalNodes>
          <leafValues>
            5.4490558803081512e-02 -7.3172324895858765e-01</leafValues></_>
        <_>
          <internalNodes>
            0 -1 145 -1.3765835203230381e-02</internalNodes>
          <leafValues>
            -4.8471054434776306e-01 2.0773167908191681e-01</leafValues></_>
        <_>
          <internalNodes>
            0 -1 9 -7.5077993096783757e-04</internalNodes>
          <leafValues>
            -5.9161621332168579e-01 1.2338594347238541e-01</leafValues></_>
        <_>
          <internalNodes>
            0 -1 55 3.7802725564688444e-03</internalNodes>
          <leafValues>
            1.0015234351158142e-01 -6.1097753047943115e-01</leafValues></_>
        <_>
          <internalNodes>
            0 -1 125 -3.0894810333848000e-03</internalNodes>
          <leafValues>
            5.1244503259658813e-01 -1.5568859875202179e-01</leafValues></_>
        <_>
          <internalNodes>
            0 -1 66 -2.6759053580462933e-03</internalNodes>
          <leafValues>
            3.9638367295265198e-01 -1.8155808746814728e-01</leafValues></_>
        <_>
          <internalNodes>
            0 -1 26 5.0195828080177307e-02</internalNodes>
          <leafValues>
            -1.7344543337821960e-01 4.7488415241241455e-01</leafValues></_>
        <_>
          <internalNodes>
            0 -1 108 -8.6940097389742732e-04</internalNodes>
          <leafValues>
            -6.5601390600204468e-01 1.0983321815729141e-01</leafValues></_>
        <_>
          <internalNodes>
            0 -1 71 1.3431647792458534e-02</internalNodes>
          <leafValues>
            -2.8406673669815063e-01 2.7676564455032349e-01</leafValues></_></weakClassifiers></_>
    <!-- stage 11 -->
    <_>
      <maxWeakCount>17</maxWeakCount>
      <stageThreshold>-1.2867988348007202e+00</stageThreshold>
      <weakClassifiers>
        <_>
          <internalNodes>
            0 -1 25 -1.6834238171577454e-01</internalNodes>
          <leafValues>
            5.7142859697341919e-01 -6.9624572992324829e-01</leafValues></_>
        <_>
          <internalNodes>
            0 -1 18 -1.6361492453143001e-03</internalNodes>
          <leafValues>
            3.2644966244697571e-01 -3.5786479711532593e-01</leafValues></_>
        <_>
          <internalNodes>
            0 -1 29 1.1185224866494536e-03</internalNodes>
          <leafValues>
            1.9988493621349335e-01 -3.7024712562561035e-01</leafValues></_>
        <_>
          <internalNodes>
            0 -1 103 8.9252724137622863e-05</internalNodes>
          <leafValues>
            6.4549595117568970e-02 -1.</leafValues></_>
        <_>
          <internalNodes>
            0 -1 144 -6.9169531343504786e-04</internalNodes>
          <leafValues>
            3.3158314228057861e-01 -2.1264168620109558e-01</leafValues></_>
        <_>
          <internalNodes>
            0 -1 78 -5.1051320042461157e-04</internalNodes>
          <leafValues>
            3.9337387681007385e-01 -1.7926163971424103e-01</leafValues></_>
        <_>
          <internalNodes>
            0 -1 159 6.1114905402064323e-03</internalNodes>
          <leafValues>
            1.1610358953475952e-01 -6.0312908887863159e-01</leafValues></_>
        <_>
          <internalNodes>
            0 -1 117 3.3296010224148631e-04</internalNodes>
          <leafValues>
            1.2747785449028015e-01 -6.2279057502746582e-01</leafValues></_>
        <_>
          <internalNodes>
            0 -1 39 2.2712263464927673e-01</internalNodes>
          <leafValues>
            1.4398111402988434e-01 -5.6619811058044434e-01</leafValues></_>
        <_>
          <internalNodes>
            0 -1 58 4.6782404184341431e-02</internalNodes>
          <leafValues>
            -3.3407357335090637e-01 3.1098142266273499e-01</leafValues></_>
        <_>
          <internalNodes>
            0 -1 61 1.4883379917591810e-03</internalNodes>
          <leafValues>
            -2.9849168658256531e-01 3.1912282109260559e-01</leafValues></_>
        <_>
          <internalNodes>
            0 -1 115 6.4881745493039489e-04</internalNodes>
          <leafValues>
            1.2026370316743851e-01 -6.3287889957427979e-01</leafValues></_>
        <_>
          <internalNodes>
            0 -1 8 1.5050728619098663e-01</internalNodes>
          <leafValues>
            1.0342088341712952e-01 -6.6495418548583984e-01</leafValues></_>
        <_>
          <internalNodes>
            0 -1 138 1.3072857633233070e-02</internalNodes>
          <leafValues>
            -1.8206703662872314e-01 4.7226431965827942e-01</leafValues></_>
        <_>
          <internalNodes>
            0 -1 37 -1.4004457043483853e-03</internalNodes>
          <leafValues>
            -4.5699977874755859e-01 1.6183292865753174e-01</leafValues></_>
        <_>
          <internalNodes>
            0 -1 7 -1.2641886714845896e-03</internalNodes>
          <leafValues>
            -3.3672049641609192e-01 2.3109109699726105e-01</leafValues></_>
        <_>
          <internalNodes>
            0 -1 110 5.3375766583485529e-05</internalNodes>
          <leafValues>
            3.3172562718391418e-01 -2.2216941416263580e-01</leafValues></_></weakClassifiers></_></stages>
  <features>
    <_>
      <rects>
        <_>
          0 0 2 2 -1.</_>
        <_>
          0 0 1 1 2.</_>
        <_>
          1 1 1 1 2.</_></rects>
      <tilted>0</tilted></_>
    <_>
      <rects>
        <_>
          0 0 8 4 -1.</_>
        <_>
          0 0 4 2 2.</_>
        <_>
          4 2 4 2 2.</_></rects>
      <tilted>0</tilted></_>
    <_>
      <rects>
        <_>
          0 0 20 24 -1.</_>
        <_>
          0 0 10 12 2.</_>
        <_>
          10 12 10 12 2.</_></rects>
      <tilted>0</tilted></_>
    <_>
      <rects>
        <_>
          0 2 20 22 -1.</_>
        <_>
          0 13 20 11 2.</_></rects>
      <tilted>0</tilted></_>
    <_>
      <rects>
        <_>
          0 3 24 10 -1.</_>
        <_>
          0 8 24 5 2.</_></rects>
      <tilted>0</tilted></_>
    <_>
      <rects>
        <_>
          0 5 2 10 -1.</_>
        <_>
          0 10 2 5 2.</_></rects>
      <tilted>0</tilted></_>
    <_>
      <rects>
        <_>
          0 5 14 8 -1.</_>
        <_>
          0 5 7 4 2.</_>
        <_>
          7 9 7 4 2.</_></rects>
      <tilted>0</tilted></_>
    <_>
      <rects>
        <_>
          0 8 4 14 -1.</_>
        <_>
          0 8 2 7 2.</_>
        <_>
          2 15 2 7 2.</_></rects>
      <tilted>0</tilted></_>
    <_>
      <rects>
        <_>
          0 8 24 6 -1.</_>
        <_>
          12 8 12 6 2.</_></rects>
      <tilted>0</tilted></_>
    <_>
      <rects>
        <_>
          0 9 2 5 -1.</_>
        <_>
          1 9 1 5 2.</_></rects>
      <tilted>0</tilted></_>
    <_>
      <rects>
        <_>
          0 9 3 4 -1.</_>
        <_>
          0 11 3 2 2.</_></rects>
      <tilted>0</tilted></_>
    <_>
      <rects>
        <_>
          0 10 1 2 -1.</_>
        <_>
          0 11 1 1 2.</_></rects>
      <tilted>0</tilted></_>
    <_>
      <rects>
        <_>
          0 10 14 4 -1.</_>
        <_>
          0 10 7 2 2.</_>
        <_>
          7 12 7 2 2.</_></rects>
      <tilted>0</tilted></_>
    <_>
      <rects>
        <_>
          0 11 4 2 -1.</_>
        <_>
          0 12 4 1 2.</_></rects>
      <tilted>0</tilted></_>
    <_>
      <rects>
        <_>
          0 11 5 2 -1.</_>
        <_>
          0 12 5 1 2.</_></rects>
      <tilted>0</tilted></_>
    <_>
      <rects>
        <_>
          0 11 5 4 -1.</_>
        <_>
          0 13 5 2 2.</_></rects>
      <tilted>0</tilted></_>
    <_>
      <rects>
        <_>
          0 11 12 4 -1.</_>
        <_>
          6 11 6 4 2.</_></rects>
      <tilted>0</tilted></_>
    <_>
      <rects>
        <_>
          0 11 9 2 -1.</_>
        <_>
          0 12 9 1 2.</_></rects>
      <tilted>0</tilted></_>
    <_>
      <rects>
        <_>
          0 12 2 2 -1.</_>
        <_>
          0 13 2 1 2.</_></rects>
      <tilted>0</tilted></_>
    <_>
      <rects>
        <_>
          0 12 6 2 -1.</_>
        <_>
          0 13 6 1 2.</_></rects>
      <tilted>0</tilted></_>
    <_>
      <rects>
        <_>
          0 12 12 2 -1.</_>
        <_>
          0 12 6 1 2.</_>
        <_>
          6 13 6 1 2.</_></rects>
      <tilted>0</tilted></_>
    <_>
      <rects>
        <_>
          0 12 7 4 -1.</_>
        <_>
          0 14 7 2 2.</_></rects>
      <tilted>0</tilted></_>
    <_>
      <rects>
        <_>
          0 13 2 2 -1.</_>
        <_>
          0 14 2 1 2.</_></rects>
      <tilted>0</tilted></_>
    <_>
      <rects>
        <_>
          0 13 4 2 -1.</_>
        <_>
          0 14 4 1 2.</_></rects>
      <tilted>0</tilted></_>
    <_>
      <rects>
        <_>
          0 13 15 10 -1.</_>
        <_>
          0 18 15 5 2.</_></rects>
      <tilted>0</tilted></_>
    <_>
      <rects>
        <_>
          0 13 24 6 -1.</_>
        <_>
          0 16 24 3 2.</_></rects>
      <tilted>0</tilted></_>
    <_>
      <rects>
        <_>
          0 14 21 8 -1.</_>
        <_>
          0 18 21 4 2.</_></rects>
      <tilted>0</tilted></_>
    <_>
      <rects>
        <_>
          0 21 22 1 -1.</_>
        <_>
          11 21 11 1 2.</_></rects>
      <tilted>0</tilted></_>
    <_>
      <rects>
        <_>
          1 0 2 6 -1.</_>
        <_>
          1 3 2 3 2.</_></rects>
      <tilted>0</tilted></_>
    <_>
      <rects>
        <_>
          1 0 6 3 -1.</_>
        <_>
          4 0 3 3 2.</_></rects>
      <tilted>0</tilted></_>
    <_>
      <rects>
        <_>
          1 3 5 2 -1.</_>
        <_>
          1 4 5 1 2.</_></rects>
      <tilted>0</tilted></_>
    <_>
      <rects>
        <_>
          1 5 4 18 -1.</_>
        <_>
          1 14 4 9 2.</_></rects>
      <tilted>0</tilted></_>
    <_>
      <rects>
        <_>
          1 6 3 18 -1.</_>
        <_>
          1 15 3 9 2.</_></rects>
      <tilted>0</tilted></_>
    <_>
      <rects>
        <_>
          1 6 10 10 -1.</_>
        <_>
          1 6 5 5 2.</_>
        <_>
          6 11 5 5 2.</_></rects>
      <tilted>0</tilted></_>
    <_>
      <rects>
        <_>
          1 10 2 8 -1.</_>
        <_>
          1 10 1 4 2.</_>
        <_>
          2 14 1 4 2.</_></rects>
      <tilted>0</tilted></_>
    <_>
      <rects>
        <_>
          1 18 3 6 -1.</_>
        <_>
          1 21 3 3 2.</_></rects>
      <tilted>0</tilted></_>
    <_>
      <rects>
        <_>
          2 1 2 2 -1.</_>
        <_>
          3 1 1 2 2.</_></rects>
      <tilted>0</tilted></_>
    <_>
      <rects>
        <_>
          2 1 2 14 -1.</_>
        <_>
          2 1 1 7 2.</_>
        <_>
          3 8 1 7 2.</_></rects>
      <tilted>0</tilted></_>
    <_>
      <rects>
        <_>
          2 3 4 2 -1.</_>
        <_>
          2 4 4 1 2.</_></rects>
      <tilted>0</tilted></_>
    <_>
      <rects>
        <_>
          2 8 22 13 -1.</_>
        <_>
          13 8 11 13 2.</_></rects>
      <tilted>0</tilted></_>
    <_>
      <rects>
        <_>
          2 9 2 14 -1.</_>
        <_>
          2 9 1 7 2.</_>
        <_>
          3 16 1 7 2.</_></rects>
      <tilted>0</tilted></_>
    <_>
      <rects>
        <_>
          2 10 8 8 -1.</_>
        <_>
          2 10 4 4 2.</_>
        <_>
          6 14 4 4 2.</_></rects>
      <tilted>0</tilted></_>
    <_>
      <rects>
        <_>
          2 11 8 3 -1.</_>
        <_>
          6 11 4 3 2.</_></rects>
      <tilted>0</tilted></_>
    <_>
      <rects>
        <_>
          2 14 6 4 -1.</_>
        <_>
          2 14 3 2 2.</_>
        <_>
          5 16 3 2 2.</_></rects>
      <tilted>0</tilted></_>
    <_>
      <rects>
        <_>
          3 22 7 2 -1.</_>
        <_>
          3 23 7 1 2.</_></rects>
      <tilted>0</tilted></_>
    <_>
      <rects>
        <_>
          4 3 8 16 -1.</_>
        <_>
          8 3 4 16 2.</_></rects>
      <tilted>0</tilted></_>
    <_>
      <rects>
        <_>
          4 12 1 2 -1.</_>
        <_>
          4 13 1 1 2.</_></rects>
      <tilted>0</tilted></_>
    <_>
      <rects>
        <_>
          4 13 6 10 -1.</_>
        <_>
          4 13 3 5 2.</_>
        <_>
          7 18 3 5 2.</_></rects>
      <tilted>0</tilted></_>
    <_>
      <rects>
        <_>
          4 15 8 5 -1.</_>
        <_>
          8 15 4 5 2.</_></rects>
      <tilted>0</tilted></_>
    <_>
      <rects>
        <_>
          5 4 13 14 -1.</_>
        <_>
          5 11 13 7 2.</_></rects>
      <tilted>0</tilted></_>
    <_>
      <rects>
        <_>
          5 15 6 1 -1.</_>
        <_>
          8 15 3 1 2.</_></rects>
      <tilted>0</tilted></_>
    <_>
      <rects>
        <_>
          5 22 4 2 -1.</_>
        <_>
          5 22 2 1 2.</_>
        <_>
          7 23 2 1 2.</_></rects>
      <tilted>0</tilted></_>
    <_>
      <rects>
        <_>
          6 0 2 1 -1.</_>
        <_>
          7 0 1 1 2.</_></rects>
      <tilted>0</tilted></_>
    <_>
      <rects>
        <_>
          6 14 12 8 -1.</_>
        <_>
          6 18 12 4 2.</_></rects>
      <tilted>0</tilted></_>
    <_>
      <rects>
        <_>
          6 22 2 2 -1.</_>
        <_>
          6 23 2 1 2.</_></rects>
      <tilted>0</tilted></_>
    <_>
      <rects>
        <_>
          7 0 6 2 -1.</_>
        <_>
          10 0 3 2 2.</_></rects>
      <tilted>0</tilted></_>
    <_>
      <rects>
        <_>
          7 13 15 1 -1.</_>
        <_>
          12 13 5 1 2.</_></rects>
      <tilted>0</tilted></_>
    <_>
      <rects>
        <_>
          8 0 5 14 -1.</_>
        <_>
          8 7 5 7 2.</_></rects>
      <tilted>0</tilted></_>
    <_>
      <rects>
        <_>
          8 1 12 19 -1.</_>
        <_>
          14 1 6 19 2.</_></rects>
      <tilted>0</tilted></_>
    <_>
      <rects>
        <_>
          8 2 16 1 -1.</_>
        <_>
          16 2 8 1 2.</_></rects>
      <tilted>0</tilted></_>
    <_>
      <rects>
        <_>
          8 6 8 11 -1.</_>
        <_>
          12 6 4 11 2.</_></rects>
      <tilted>0</tilted></_>
    <_>
      <rects>
        <_>
          8 8 2 10 -1.</_>
        <_>
          9 8 1 10 2.</_></rects>
      <tilted>0</tilted></_>
    <_>
      <rects>
        <_>
          8 11 1 2 -1.</_>
        <_>
          8 12 1 1 2.</_></rects>
      <tilted>0</tilted></_>
    <_>
      <rects>
        <_>
          8 13 12 10 -1.</_>
        <_>
          14 13 6 10 2.</_></rects>
      <tilted>0</tilted></_>
    <_>
      <rects>
        <_>
          8 14 1 2 -1.</_>
        <_>
          8 15 1 1 2.</_></rects>
      <tilted>0</tilted></_>
    <_>
      <rects>
        <_>
          8 17 3 1 -1.</_>
        <_>
          9 17 1 1 2.</_></rects>
      <tilted>0</tilted></_>
    <_>
      <rects>
        <_>
          8 18 8 2 -1.</_>
        <_>
          8 19 8 1 2.</_></rects>
      <tilted>0</tilted></_>
    <_>
      <rects>
        <_>
          9 1 12 18 -1.</_>
        <_>
          9 10 12 9 2.</_></rects>
      <tilted>0</tilted></_>
    <_>
      <rects>
        <_>
          9 2 4 17 -1.</_>
        <_>
          11 2 2 17 2.</_></rects>
      <tilted>0</tilted></_>
    <_>
      <rects>
        <_>
          9 2 10 10 -1.</_>
        <_>
          9 7 10 5 2.</_></rects>
      <tilted>0</tilted></_>
    <_>
      <rects>
        <_>
          9 10 4 3 -1.</_>
        <_>
          11 10 2 3 2.</_></rects>
      <tilted>0</tilted></_>
    <_>
      <rects>
        <_>
          9 11 6 7 -1.</_>
        <_>
          12 11 3 7 2.</_></rects>
      <tilted>0</tilted></_>
    <_>
      <rects>
        <_>
          9 14 2 3 -1.</_>
        <_>
          10 14 1 3 2.</_></rects>
      <tilted>0</tilted></_>
    <_>
      <rects>
        <_>
          9 15 1 2 -1.</_>
        <_>
          9 16 1 1 2.</_></rects>
      <tilted>0</tilted></_>
    <_>
      <rects>
        <_>
          9 16 3 4 -1.</_>
        <_>
          10 16 1 4 2.</_></rects>
      <tilted>0</tilted></_>
    <_>
      <rects>
        <_>
          9 18 7 6 -1.</_>
        <_>
          9 21 7 3 2.</_></rects>
      <tilted>0</tilted></_>
    <_>
      <rects>
        <_>
          9 21 14 1 -1.</_>
        <_>
          16 21 7 1 2.</_></rects>
      <tilted>0</tilted></_>
    <_>
      <rects>
        <_>
          10 3 2 15 -1.</_>
        <_>
          11 3 1 15 2.</_></rects>
      <tilted>0</tilted></_>
    <_>
      <rects>
        <_>
          10 4 5 2 -1.</_>
        <_>
          10 5 5 1 2.</_></rects>
      <tilted>0</tilted></_>
    <_>
      <rects>
        <_>
          10 5 4 13 -1.</_>
        <_>
          12 5 2 13 2.</_></rects>
      <tilted>0</tilted></_>
    <_>
      <rects>
        <_>
          10 5 14 14 -1.</_>
        <_>
          10 5 7 7 2.</_>
        <_>
          17 12 7 7 2.</_></rects>
      <tilted>0</tilted></_>
    <_>
      <rects>
        <_>
          10 7 6 2 -1.</_>
        <_>
          10 8 6 1 2.</_></rects>
      <tilted>0</tilted></_>
    <_>
      <rects>
        <_>
          10 9 1 2 -1.</_>
        <_>
          10 10 1 1 2.</_></rects>
      <tilted>0</tilted></_>
    <_>
      <rects>
        <_>
          10 9 6 10 -1.</_>
        <_>
          10 14 6 5 2.</_></rects>
      <tilted>0</tilted></_>
    <_>
      <rects>
        <_>
          10 10 2 2 -1.</_>
        <_>
          10 11 2 1 2.</_></rects>
      <tilted>0</tilted></_>
    <_>
      <rects>
        <_>
          10 10 6 2 -1.</_>
        <_>
          10 10 3 1 2.</_>
        <_>
          13 11 3 1 2.</_></rects>
      <tilted>0</tilted></_>
    <_>
      <rects>
        <_>
          10 12 1 2 -1.</_>
        <_>
          10 13 1 1 2.</_></rects>
      <tilted>0</tilted></_>
    <_>
      <rects>
        <_>
          10 13 1 2 -1.</_>
        <_>
          10 14 1 1 2.</_></rects>
      <tilted>0</tilted></_>
    <_>
      <rects>
        <_>
          10 13 4 2 -1.</_>
        <_>
          10 14 4 1 2.</_></rects>
      <tilted>0</tilted></_>
    <_>
      <rects>
        <_>
          10 13 6 2 -1.</_>
        <_>
          10 14 6 1 2.</_></rects>
      <tilted>0</tilted></_>
    <_>
      <rects>
        <_>
          10 14 2 2 -1.</_>
        <_>
          10 15 2 1 2.</_></rects>
      <tilted>0</tilted></_>
    <_>
      <rects>
        <_>
          10 15 1 2 -1.</_>
        <_>
          10 16 1 1 2.</_></rects>
      <tilted>0</tilted></_>
    <_>
      <rects>
        <_>
          10 15 1 3 -1.</_>
        <_>
          10 16 1 1 2.</_></rects>
      <tilted>0</tilted></_>
    <_>
      <rects>
        <_>
          10 15 4 2 -1.</_>
        <_>
          12 15 2 2 2.</_></rects>
      <tilted>0</tilted></_>
    <_>
      <rects>
        <_>
          10 17 3 2 -1.</_>
        <_>
          10 18 3 1 2.</_></rects>
      <tilted>0</tilted></_>
    <_>
      <rects>
        <_>
          10 17 3 4 -1.</_>
        <_>
          10 19 3 2 2.</_></rects>
      <tilted>0</tilted></_>
    <_>
      <rects>
        <_>
          10 17 7 4 -1.</_>
        <_>
          10 19 7 2 2.</_></rects>
      <tilted>0</tilted></_>
    <_>
      <rects>
        <_>
          10 18 14 1 -1.</_>
        <_>
          17 18 7 1 2.</_></rects>
      <tilted>0</tilted></_>
    <_>
      <rects>
        <_>
          10 22 12 2 -1.</_>
        <_>
          10 22 6 1 2.</_>
        <_>
          16 23 6 1 2.</_></rects>
      <tilted>0</tilted></_>
    <_>
      <rects>
        <_>
          11 2 2 8 -1.</_>
        <_>
          11 6 2 4 2.</_></rects>
      <tilted>0</tilted></_>
    <_>
      <rects>
        <_>
          11 7 3 2 -1.</_>
        <_>
          11 8 3 1 2.</_></rects>
      <tilted>0</tilted></_>
    <_>
      <rects>
        <_>
          11 10 4 2 -1.</_>
        <_>
          11 10 2 1 2.</_>
        <_>
          13 11 2 1 2.</_></rects>
      <tilted>0</tilted></_>
    <_>
      <rects>
        <_>
          11 12 2 2 -1.</_>
        <_>
          11 13 2 1 2.</_></rects>
      <tilted>0</tilted></_>
    <_>
      <rects>
        <_>
          11 13 1 2 -1.</_>
        <_>
          11 14 1 1 2.</_></rects>
      <tilted>0</tilted></_>
    <_>
      <rects>
        <_>
          11 14 6 2 -1.</_>
        <_>
          11 14 3 1 2.</_>
        <_>
          14 15 3 1 2.</_></rects>
      <tilted>0</tilted></_>
    <_>
      <rects>
        <_>
          12 1 12 10 -1.</_>
        <_>
          12 1 6 5 2.</_>
        <_>
          18 6 6 5 2.</_></rects>
      <tilted>0</tilted></_>
    <_>
      <rects>
        <_>
          12 7 12 6 -1.</_>
        <_>
          12 7 6 3 2.</_>
        <_>
          18 10 6 3 2.</_></rects>
      <tilted>0</tilted></_>
    <_>
      <rects>
        <_>
          12 7 12 8 -1.</_>
        <_>
          12 7 6 4 2.</_>
        <_>
          18 11 6 4 2.</_></rects>
      <tilted>0</tilted></_>
    <_>
      <rects>
        <_>
          12 9 4 2 -1.</_>
        <_>
          12 9 2 1 2.</_>
        <_>
          14 10 2 1 2.</_></rects>
      <tilted>0</tilted></_>
    <_>
      <rects>
        <_>
          12 12 3 2 -1.</_>
        <_>
          12 13 3 1 2.</_></rects>
      <tilted>0</tilted></_>
    <_>
      <rects>
        <_>
          12 12 12 2 -1.</_>
        <_>
          12 12 6 1 2.</_>
        <_>
          18 13 6 1 2.</_></rects>
      <tilted>0</tilted></_>
    <_>
      <rects>
        <_>
          12 13 1 4 -1.</_>
        <_>
          12 15 1 2 2.</_></rects>
      <tilted>0</tilted></_>
    <_>
      <rects>
        <_>
          12 14 4 2 -1.</_>
        <_>
          12 14 2 1 2.</_>
        <_>
          14 15 2 1 2.</_></rects>
      <tilted>0</tilted></_>
    <_>
      <rects>
        <_>
          12 16 1 2 -1.</_>
        <_>
          12 17 1 1 2.</_></rects>
      <tilted>0</tilted></_>
    <_>
      <rects>
        <_>
          12 17 10 2 -1.</_>
        <_>
          12 17 5 1 2.</_>
        <_>
          17 18 5 1 2.</_></rects>
      <tilted>0</tilted></_>
    <_>
      <rects>
        <_>
          12 22 2 2 -1.</_>
        <_>
          12 23 2 1 2.</_></rects>
      <tilted>0</tilted></_>
    <_>
      <rects>
        <_>
          13 1 10 8 -1.</_>
        <_>
          13 1 5 4 2.</_>
        <_>
          18 5 5 4 2.</_></rects>
      <tilted>0</tilted></_>
    <_>
      <rects>
        <_>
          13 9 1 2 -1.</_>
        <_>
          13 10 1 1 2.</_></rects>
      <tilted>0</tilted></_>
    <_>
      <rects>
        <_>
          13 9 2 2 -1.</_>
        <_>
          13 10 2 1 2.</_></rects>
      <tilted>0</tilted></_>
    <_>
      <rects>
        <_>
          13 12 4 2 -1.</_>
        <_>
          13 13 4 1 2.</_></rects>
      <tilted>0</tilted></_>
    <_>
      <rects>
        <_>
          13 14 3 2 -1.</_>
        <_>
          13 15 3 1 2.</_></rects>
      <tilted>0</tilted></_>
    <_>
      <rects>
        <_>
          13 15 1 2 -1.</_>
        <_>
          13 16 1 1 2.</_></rects>
      <tilted>0</tilted></_>
    <_>
      <rects>
        <_>
          14 0 8 12 -1.</_>
        <_>
          14 0 4 6 2.</_>
        <_>
          18 6 4 6 2.</_></rects>
      <tilted>0</tilted></_>
    <_>
      <rects>
        <_>
          14 11 2 2 -1.</_>
        <_>
          14 12 2 1 2.</_></rects>
      <tilted>0</tilted></_>
    <_>
      <rects>
        <_>
          14 11 8 2 -1.</_>
        <_>
          14 11 4 1 2.</_>
        <_>
          18 12 4 1 2.</_></rects>
      <tilted>0</tilted></_>
    <_>
      <rects>
        <_>
          14 12 10 2 -1.</_>
        <_>
          14 12 5 1 2.</_>
        <_>
          19 13 5 1 2.</_></rects>
      <tilted>0</tilted></_>
    <_>
      <rects>
        <_>
          14 14 3 2 -1.</_>
        <_>
          14 15 3 1 2.</_></rects>
      <tilted>0</tilted></_>
    <_>
      <rects>
        <_>
          14 15 1 2 -1.</_>
        <_>
          14 16 1 1 2.</_></rects>
      <tilted>0</tilted></_>
    <_>
      <rects>
        <_>
          15 2 2 22 -1.</_>
        <_>
          15 2 1 11 2.</_>
        <_>
          16 13 1 11 2.</_></rects>
      <tilted>0</tilted></_>
    <_>
      <rects>
        <_>
          15 4 2 14 -1.</_>
        <_>
          16 4 1 14 2.</_></rects>
      <tilted>0</tilted></_>
    <_>
      <rects>
        <_>
          15 6 6 14 -1.</_>
        <_>
          15 6 3 7 2.</_>
        <_>
          18 13 3 7 2.</_></rects>
      <tilted>0</tilted></_>
    <_>
      <rects>
        <_>
          15 10 1 2 -1.</_>
        <_>
          15 11 1 1 2.</_></rects>
      <tilted>0</tilted></_>
    <_>
      <rects>
        <_>
          15 11 1 2 -1.</_>
        <_>
          15 12 1 1 2.</_></rects>
      <tilted>0</tilted></_>
    <_>
      <rects>
        <_>
          15 13 1 2 -1.</_>
        <_>
          15 14 1 1 2.</_></rects>
      <tilted>0</tilted></_>
    <_>
      <rects>
        <_>
          16 0 8 1 -1.</_>
        <_>
          20 0 4 1 2.</_></rects>
      <tilted>0</tilted></_>
    <_>
      <rects>
        <_>
          16 4 4 12 -1.</_>
        <_>
          18 4 2 12 2.</_></rects>
      <tilted>0</tilted></_>
    <_>
      <rects>
        <_>
          16 11 1 2 -1.</_>
        <_>
          16 12 1 1 2.</_></rects>
      <tilted>0</tilted></_>
    <_>
      <rects>
        <_>
          16 12 1 2 -1.</_>
        <_>
          16 13 1 1 2.</_></rects>
      <tilted>0</tilted></_>
    <_>
      <rects>
        <_>
          16 14 8 3 -1.</_>
        <_>
          20 14 4 3 2.</_></rects>
      <tilted>0</tilted></_>
    <_>
      <rects>
        <_>
          17 13 1 6 -1.</_>
        <_>
          17 16 1 3 2.</_></rects>
      <tilted>0</tilted></_>
    <_>
      <rects>
        <_>
          17 13 6 2 -1.</_>
        <_>
          17 13 3 1 2.</_>
        <_>
          20 14 3 1 2.</_></rects>
      <tilted>0</tilted></_>
    <_>
      <rects>
        <_>
          18 8 2 4 -1.</_>
        <_>
          18 8 1 2 2.</_>
        <_>
          19 10 1 2 2.</_></rects>
      <tilted>0</tilted></_>
    <_>
      <rects>
        <_>
          18 10 1 2 -1.</_>
        <_>
          18 11 1 1 2.</_></rects>
      <tilted>0</tilted></_>
    <_>
      <rects>
        <_>
          18 12 4 4 -1.</_>
        <_>
          18 12 2 2 2.</_>
        <_>
          20 14 2 2 2.</_></rects>
      <tilted>0</tilted></_>
    <_>
      <rects>
        <_>
          18 13 6 2 -1.</_>
        <_>
          18 13 3 1 2.</_>
        <_>
          21 14 3 1 2.</_></rects>
      <tilted>0</tilted></_>
    <_>
      <rects>
        <_>
          19 0 1 24 -1.</_>
        <_>
          19 12 1 12 2.</_></rects>
      <tilted>0</tilted></_>
    <_>
      <rects>
        <_>
          19 12 5 6 -1.</_>
        <_>
          19 15 5 3 2.</_></rects>
      <tilted>0</tilted></_>
    <_>
      <rects>
        <_>
          20 0 2 8 -1.</_>
        <_>
          20 0 1 4 2.</_>
        <_>
          21 4 1 4 2.</_></rects>
      <tilted>0</tilted></_>
    <_>
      <rects>
        <_>
          20 0 4 6 -1.</_>
        <_>
          20 3 4 3 2.</_></rects>
      <tilted>0</tilted></_>
    <_>
      <rects>
        <_>
          20 3 3 2 -1.</_>
        <_>
          20 4 3 1 2.</_></rects>
      <tilted>0</tilted></_>
    <_>
      <rects>
        <_>
          20 12 4 2 -1.</_>
        <_>
          20 13 4 1 2.</_></rects>
      <tilted>0</tilted></_>
    <_>
      <rects>
        <_>
          20 12 4 6 -1.</_>
        <_>
          20 15 4 3 2.</_></rects>
      <tilted>0</tilted></_>
    <_>
      <rects>
        <_>
          20 13 3 2 -1.</_>
        <_>
          20 14 3 1 2.</_></rects>
      <tilted>0</tilted></_>
    <_>
      <rects>
        <_>
          20 19 4 4 -1.</_>
        <_>
          20 21 4 2 2.</_></rects>
      <tilted>0</tilted></_>
    <_>
      <rects>
        <_>
          21 0 2 20 -1.</_>
        <_>
          21 10 2 10 2.</_></rects>
      <tilted>0</tilted></_>
    <_>
      <rects>
        <_>
          21 4 2 20 -1.</_>
        <_>
          22 4 1 20 2.</_></rects>
      <tilted>0</tilted></_>
    <_>
      <rects>
        <_>
          21 8 2 12 -1.</_>
        <_>
          22 8 1 12 2.</_></rects>
      <tilted>0</tilted></_>
    <_>
      <rects>
        <_>
          22 2 2 22 -1.</_>
        <_>
          23 2 1 22 2.</_></rects>
      <tilted>0</tilted></_>
    <_>
      <rects>
        <_>
          22 13 1 2 -1.</_>
        <_>
          22 14 1 1 2.</_></rects>
      <tilted>0</tilted></_>
    <_>
      <rects>
        <_>
          22 14 1 10 -1.</_>
        <_>
          22 19 1 5 2.</_></rects>
      <tilted>0</tilted></_>
    <_>
      <rects>
        <_>
          23 1 1 6 -1.</_>
        <_>
          23 4 1 3 2.</_></rects>
      <tilted>0</tilted></_>
    <_>
      <rects>
        <_>
          23 1 1 18 -1.</_>
        <_>
          23 10 1 9 2.</_></rects>
      <tilted>0</tilted></_>
    <_>
      <rects>
        <_>
          23 4 1 6 -1.</_>
        <_>
          23 7 1 3 2.</_></rects>
      <tilted>0</tilted></_></features></cascade>
</opencv_storage>
