<?xml version="1.0"?>
<opencv_storage>
<stage11>
  <maxWeakCount>17</maxWeakCount>
  <stageThreshold>-1.2867988348007202e+00</stageThreshold>
  <weakClassifiers>
    <_>
      <internalNodes>
        0 -1 11028 -1.6834238171577454e-01</internalNodes>
      <leafValues>
        5.7142859697341919e-01 -6.9624572992324829e-01</leafValues></_>
    <_>
      <internalNodes>
        0 -1 10049 -1.6361492453143001e-03</internalNodes>
      <leafValues>
        3.2644966244697571e-01 -3.5786479711532593e-01</leafValues></_>
    <_>
      <internalNodes>
        0 -1 13562 1.1185224866494536e-03</internalNodes>
      <leafValues>
        1.9988493621349335e-01 -3.7024712562561035e-01</leafValues></_>
    <_>
      <internalNodes>
        0 -1 119881 8.9252724137622863e-05</internalNodes>
      <leafValues>
        6.4549595117568970e-02 -1.</leafValues></_>
    <_>
      <internalNodes>
        0 -1 154597 -6.9169531343504786e-04</internalNodes>
      <leafValues>
        3.3158314228057861e-01 -2.1264168620109558e-01</leafValues></_>
    <_>
      <internalNodes>
        0 -1 109385 -5.1051320042461157e-04</internalNodes>
      <leafValues>
        3.9337387681007385e-01 -1.7926163971424103e-01</leafValues></_>
    <_>
      <internalNodes>
        0 -1 161956 6.1114905402064323e-03</internalNodes>
      <leafValues>
        1.1610358953475952e-01 -6.0312908887863159e-01</leafValues></_>
    <_>
      <internalNodes>
        0 -1 131516 3.3296010224148631e-04</internalNodes>
      <leafValues>
        1.2747785449028015e-01 -6.2279057502746582e-01</leafValues></_>
    <_>
      <internalNodes>
        0 -1 33055 2.2712263464927673e-01</internalNodes>
      <leafValues>
        1.4398111402988434e-01 -5.6619811058044434e-01</leafValues></_>
    <_>
      <internalNodes>
        0 -1 90974 4.6782404184341431e-02</internalNodes>
      <leafValues>
        -3.3407357335090637e-01 3.1098142266273499e-01</leafValues></_>
    <_>
      <internalNodes>
        0 -1 94747 1.4883379917591810e-03</internalNodes>
      <leafValues>
        -2.9849168658256531e-01 3.1912282109260559e-01</leafValues></_>
    <_>
      <internalNodes>
        0 -1 127999 6.4881745493039489e-04</internalNodes>
      <leafValues>
        1.2026370316743851e-01 -6.3287889957427979e-01</leafValues></_>
    <_>
      <internalNodes>
        0 -1 7963 1.5050728619098663e-01</internalNodes>
      <leafValues>
        1.0342088341712952e-01 -6.6495418548583984e-01</leafValues></_>
    <_>
      <internalNodes>
        0 -1 147647 1.3072857633233070e-02</internalNodes>
      <leafValues>
        -1.8206703662872314e-01 4.7226431965827942e-01</leafValues></_>
    <_>
      <internalNodes>
        0 -1 26842 -1.4004457043483853e-03</internalNodes>
      <leafValues>
        -4.5699977874755859e-01 1.6183292865753174e-01</leafValues></_>
    <_>
      <internalNodes>
        0 -1 7493 -1.2641886714845896e-03</internalNodes>
      <leafValues>
        -3.3672049641609192e-01 2.3109109699726105e-01</leafValues></_>
    <_>
      <internalNodes>
        0 -1 126539 5.3375766583485529e-05</internalNodes>
      <leafValues>
        3.3172562718391418e-01 -2.2216941416263580e-01</leafValues></_></weakClassifiers></stage11>
</opencv_storage>
