<?xml version="1.0"?>
<opencv_storage>
<stage8>
  <maxWeakCount>14</maxWeakCount>
  <stageThreshold>-1.4586688280105591e+00</stageThreshold>
  <weakClassifiers>
    <_>
      <internalNodes>
        0 -1 124947 8.0822393298149109e-02</internalNodes>
      <leafValues>
        -7.2968035936355591e-01 -9.5238098874688148e-03</leafValues></_>
    <_>
      <internalNodes>
        0 -1 10049 -2.1369596943259239e-03</internalNodes>
      <leafValues>
        2.9120936989784241e-01 -3.2207396626472473e-01</leafValues></_>
    <_>
      <internalNodes>
        0 -1 28860 1.0607053991407156e-03</internalNodes>
      <leafValues>
        1.2915794551372528e-01 -5.7528185844421387e-01</leafValues></_>
    <_>
      <internalNodes>
        0 -1 10254 8.7569104507565498e-03</internalNodes>
      <leafValues>
        -1.5398199856281281e-01 5.3817921876907349e-01</leafValues></_>
    <_>
      <internalNodes>
        0 -1 162177 -1.3733305968344212e-03</internalNodes>
      <leafValues>
        -5.0911802053451538e-01 1.9718788564205170e-01</leafValues></_>
    <_>
      <internalNodes>
        0 -1 97098 -2.6089028688147664e-04</internalNodes>
      <leafValues>
        2.0998834073543549e-01 -3.4537962079048157e-01</leafValues></_>
    <_>
      <internalNodes>
        0 -1 117972 -9.1068411711603403e-04</internalNodes>
      <leafValues>
        4.7378602623939514e-01 -1.9312979280948639e-01</leafValues></_>
    <_>
      <internalNodes>
        0 -1 140751 -1.3722449075430632e-03</internalNodes>
      <leafValues>
        3.0400606989860535e-01 -3.2834127545356750e-01</leafValues></_>
    <_>
      <internalNodes>
        0 -1 126897 3.9099674904718995e-04</internalNodes>
      <leafValues>
        1.8091022968292236e-01 -5.3345829248428345e-01</leafValues></_>
    <_>
      <internalNodes>
        0 -1 96983 1.4460911042988300e-02</internalNodes>
      <leafValues>
        -4.1043764352798462e-01 2.0718938112258911e-01</leafValues></_>
    <_>
      <internalNodes>
        0 -1 144252 -2.3997118696570396e-03</internalNodes>
      <leafValues>
        -6.1762374639511108e-01 1.2016372382640839e-01</leafValues></_>
    <_>
      <internalNodes>
        0 -1 739 -1.4330767095088959e-02</internalNodes>
      <leafValues>
        2.1881969273090363e-01 -4.0556961297988892e-01</leafValues></_>
    <_>
      <internalNodes>
        0 -1 113799 -8.7404518853873014e-04</internalNodes>
      <leafValues>
        3.2740390300750732e-01 -2.5127288699150085e-01</leafValues></_>
    <_>
      <internalNodes>
        0 -1 115603 -5.4007018916308880e-03</internalNodes>
      <leafValues>
        5.2560877799987793e-01 -1.6850522160530090e-01</leafValues></_></weakClassifiers></stage8>
</opencv_storage>
